[[ 7.04301521e-03  3.39607336e-02]
 [ 4.43325080e-02 -4.35174219e-02]
 [-1.84080116e-02 -4.48269024e-02]
 [-4.74609025e-02  4.29279730e-03]
 [ 1.24161355e-02  4.76875566e-02]
 [-1.89721715e-02 -2.00293791e-02]
 [-2.18192935e-02 -4.75601330e-02]
 [-2.51929164e-02 -9.96438414e-03]
 [ 4.05940078e-02 -4.76400144e-02]
 [ 2.18229555e-02  1.74873210e-02]
 [-4.54872735e-02  1.42193772e-02]
 [ 3.07981260e-02  7.05496222e-03]
 [-4.39414382e-02 -2.46371031e-02]
 [-2.11061966e-02  4.22752760e-02]
 [-2.29372829e-03 -3.21153179e-02]
 [ 2.99890898e-02  2.74799131e-02]
 [-5.45565039e-03  2.30021402e-03]
 [-6.06773049e-03  1.82795189e-02]
 [ 1.65263303e-02 -4.36905734e-02]
 [ 5.10007143e-03 -4.93568890e-02]
 [ 1.22102611e-02 -1.11081488e-02]
 [-7.33039528e-03 -1.42830722e-02]
 [-2.13156100e-02  4.10173573e-02]
 [-2.36293431e-02  3.28640677e-02]
 [-4.01054509e-02  2.51601376e-02]
 [ 7.52447918e-03 -3.85691747e-02]
 [ 4.35011424e-02 -2.55626440e-03]
 [ 3.61508615e-02 -6.61809370e-03]
 [-2.37337109e-02  1.86443813e-02]
 [ 1.89989805e-03 -4.93193381e-02]
 [ 3.72403897e-02  1.98451169e-02]
 [ 2.08440907e-02  3.52325179e-02]
 [ 3.70839350e-02  4.32222523e-02]
 [-4.63736765e-02  7.80146196e-03]
 [-3.12830955e-02 -1.01045482e-02]
 [-1.03319772e-02 -3.72341871e-02]
 [ 8.97834450e-03 -3.25287804e-02]
 [-3.99299264e-02  4.29408886e-02]
 [-1.71170458e-02  8.89054686e-03]
 [-6.45065308e-03 -2.34048124e-02]
 [-4.92105149e-02  1.12975240e-02]
 [-3.83438580e-02 -2.58088112e-05]
 [-2.36607920e-02 -3.51679698e-02]
 [-9.99571010e-03  2.50697471e-02]
 [-3.18809636e-02  3.46260779e-02]
 [ 3.09743322e-02 -4.47934866e-03]
 [-1.82778239e-02  4.51853313e-02]
 [ 4.10854258e-02 -2.29446776e-02]
 [ 9.55142826e-03 -3.63125205e-02]
 [-6.00051135e-04 -3.41224223e-02]
 [-1.32488012e-02 -8.44047219e-03]
 [-1.09434240e-02  1.62820891e-03]
 [-4.95926291e-03 -2.65421160e-02]
 [ 3.15268375e-02  1.84455998e-02]
 [ 3.06889303e-02  1.94786862e-03]
 [-2.30132937e-02  1.17374584e-03]
 [ 4.15728129e-02  3.37047242e-02]
 [ 2.97158472e-02  4.03369330e-02]
 [-3.88565548e-02 -4.88747470e-02]
 [ 7.30818510e-03  4.57787775e-02]
 [-2.40755435e-02 -3.82232666e-02]
 [ 6.52534887e-03  2.44959630e-02]
 [ 1.74904577e-02 -8.46531242e-03]
 [ 3.45611572e-03  3.87209654e-03]
 [-2.06156503e-02  1.59842707e-02]
 [ 4.62355129e-02 -4.55136672e-02]
 [ 3.69363911e-02 -8.20527226e-03]
 [-1.15961060e-02 -4.69721220e-02]
 [ 3.47592868e-02 -2.13429686e-02]
 [-1.01892352e-02  8.11405107e-03]
 [ 1.76018365e-02  2.75050141e-02]
 [ 2.06097998e-02  4.32889946e-02]
 [-1.34852044e-02  4.16161306e-02]
 [ 2.18379609e-02  3.39321531e-02]
 [-4.40372489e-02 -3.23593169e-02]
 [ 2.70121805e-02 -1.36226788e-02]
 [ 1.17826834e-02 -1.98854804e-02]
 [ 4.88985218e-02  2.56318711e-02]
 [-3.88362035e-02  2.47722380e-02]
 [-4.07320037e-02  3.87588181e-02]
 [-2.69330498e-02 -3.43489423e-02]
 [-3.72493751e-02  3.03741209e-02]
 [ 2.73543596e-03 -9.89488512e-03]
 [ 3.53657044e-02 -2.96645053e-02]
 [ 1.48306154e-02  2.09446885e-02]
 [ 2.68761031e-02  9.20115784e-03]
 [ 2.00437047e-02 -3.07625886e-02]
 [-1.07198246e-02 -1.75187476e-02]
 [ 3.23454253e-02 -2.73419023e-02]
 [-1.38647445e-02  4.20893542e-02]
 [-4.56835032e-02  2.30073594e-02]
 [ 3.05415876e-02 -2.77888030e-04]
 [ 5.48326969e-03  3.54699753e-02]
 [-2.24173553e-02 -3.64982970e-02]
 [ 8.85606930e-03 -3.45373638e-02]
 [ 3.99934687e-02 -1.14851967e-02]
 [-7.48093054e-03 -3.75858769e-02]
 [ 3.15588377e-02  2.07997076e-02]
 [ 6.77758455e-03 -3.14962119e-04]
 [ 4.34422754e-02  3.49292271e-02]
 [-3.72644290e-02 -3.56858261e-02]
 [-1.97040197e-02 -3.48551646e-02]
 [-2.30143219e-03 -2.51425747e-02]
 [-1.99232101e-02 -4.86580282e-03]
 [-4.67019565e-02 -6.92512840e-03]
 [ 1.02727786e-02 -1.46231279e-02]
 [ 3.86989452e-02  1.15883462e-02]
 [ 3.68633009e-02 -4.84065525e-02]
 [ 2.00347640e-02 -3.49041447e-02]
 [-4.34116125e-02  2.73058303e-02]
 [-2.79894471e-02  8.32755491e-03]
 [ 4.67672981e-02  3.07268985e-02]
 [-1.09507889e-03  3.63065489e-02]
 [ 3.45561989e-02  1.58548243e-02]
 [-2.79742237e-02 -6.45490736e-03]
 [-1.01966262e-02  4.65753935e-02]
 [-1.39494427e-02  2.53935568e-02]
 [ 2.20986940e-02 -1.68944485e-02]
 [-4.58994620e-02 -1.27617605e-02]
 [ 2.52647065e-02 -1.82708018e-02]
 [-1.33435838e-02 -3.87082212e-02]
 [-2.61345506e-02  2.27838047e-02]
 [ 1.66884400e-02 -9.70888883e-04]
 [-4.20351513e-02 -3.06583643e-02]
 [-3.65789048e-02  3.63480933e-02]
 [-9.51539353e-03 -9.03400034e-03]
 [-1.75029747e-02 -4.50335518e-02]
 [-4.77973111e-02  1.37713663e-02]
 [-4.19889763e-03  2.09259503e-02]
 [ 4.73544262e-02  1.05492361e-02]
 [ 3.47445123e-02 -1.82781816e-02]
 [-1.40713453e-02  2.71023177e-02]
 [ 3.80523540e-02 -2.50180848e-02]
 [ 2.78446116e-02  3.07261460e-02]
 [-2.21971422e-03  2.16587894e-02]
 [-1.06927156e-02  3.85392457e-04]
 [ 1.53860934e-02  1.69454552e-02]
 [ 3.68755944e-02  2.51988806e-02]
 [-3.80267873e-02 -2.90246606e-02]
 [ 1.40166394e-02 -4.82223406e-02]
 [ 3.04365642e-02  8.47782940e-03]
 [-9.19022411e-03  3.27707045e-02]
 [ 4.50827144e-02 -4.17461507e-02]
 [ 3.63011286e-03 -3.45026851e-02]
 [ 4.76705767e-02 -4.75431345e-02]
 [-3.95231955e-02 -6.92464411e-04]
 [ 1.86679624e-02  1.26213916e-02]
 [-3.61407921e-03  6.04435056e-03]
 [-3.90257835e-02 -2.52074357e-02]
 [ 1.79130547e-02  2.53132246e-02]
 [ 2.42863968e-03 -2.64149904e-02]
 [-2.93677095e-02 -1.89576279e-02]
 [ 1.28946938e-02 -2.81911492e-02]
 [ 1.75727345e-02 -5.77498600e-03]
 [-1.54089816e-02 -1.70852318e-02]
 [-3.84555459e-02 -1.59600154e-02]
 [ 8.02703947e-03 -4.54831123e-03]
 [ 2.42936276e-02 -2.17207074e-02]
 [-2.17854623e-02  1.18305683e-02]
 [ 1.71515010e-02  7.73668289e-04]
 [-4.34226505e-02 -2.67695189e-02]
 [-1.60508230e-03  2.42550261e-02]
 [ 2.48773210e-02 -2.74604801e-02]
 [ 2.43423842e-02  3.73463668e-02]
 [ 4.62623872e-02 -2.11718809e-02]
 [ 9.74697992e-03  3.51123475e-02]
 [-3.82739305e-03 -4.12418470e-02]
 [-2.46119387e-02  8.76142830e-03]
 [ 4.41040732e-02 -3.28086689e-03]
 [ 3.35834138e-02 -3.79366279e-02]
 [ 4.60048765e-03  3.37606110e-02]
 [ 3.64782698e-02  2.39429139e-02]
 [ 5.89803606e-03  4.56975810e-02]
 [ 2.03924067e-02 -4.10381071e-02]
 [-2.16740128e-02 -3.26433666e-02]
 [ 4.92871515e-02  1.89322233e-03]
 [-2.65805721e-02  7.65018538e-03]
 [ 2.34279782e-03  2.70967819e-02]
 [ 2.69359984e-02 -4.98779081e-02]
 [-3.51028442e-02 -2.00849529e-02]
 [ 2.18158849e-02  1.52135529e-02]
 [ 3.43537964e-02 -4.47066315e-02]
 [ 3.75563987e-02 -3.90990265e-02]
 [ 2.16024853e-02  2.61396654e-02]
 [ 3.11975367e-02 -2.86606438e-02]
 [ 4.06219997e-02 -3.00210714e-03]
 [ 4.23375480e-02  2.76348330e-02]
 [-1.21112913e-03 -4.83579524e-02]
 [-2.16320511e-02  1.27457418e-02]
 [ 1.63876154e-02 -3.15019265e-02]
 [ 1.86996348e-02 -2.80557871e-02]
 [-4.02213335e-02  6.11517578e-03]
 [ 2.45033167e-02  1.16602890e-02]
 [-2.65131593e-02 -1.05405971e-03]
 [ 3.14464308e-02  3.87219898e-02]
 [ 2.73668803e-02 -4.89477888e-02]
 [-2.33558062e-02 -2.74977088e-02]
 [-2.69554388e-02 -5.03696129e-03]
 [-2.53265258e-02 -4.58631516e-02]
 [ 1.66220106e-02 -4.64081541e-02]
 [-2.66722441e-02 -6.65951893e-03]
 [-5.16257435e-03 -2.31699105e-02]
 [ 5.21684811e-03 -2.42217425e-02]
 [-8.99088383e-03  8.85434076e-03]
 [ 1.39215849e-02 -1.77764893e-02]
 [ 4.29998711e-03  3.88068072e-02]
 [ 2.70911567e-02 -1.95487496e-02]
 [-2.43569259e-02 -1.09485611e-02]
 [ 2.45793909e-03 -2.36199144e-02]
 [-2.09216606e-02  2.14095004e-02]
 [-3.10054068e-02  2.88997963e-03]
 [ 8.82238150e-03 -6.56008720e-03]
 [-3.92623171e-02 -2.12619305e-02]
 [ 2.17164196e-02  4.24220003e-02]
 [-4.40455601e-03 -3.51335183e-02]
 [-1.93975102e-02  1.82742514e-02]
 [-3.96348834e-02 -3.80891785e-02]
 [ 3.09646130e-04 -4.95948195e-02]
 [-1.28320232e-02 -3.61256599e-02]
 [-1.72879212e-02  4.90305908e-02]
 [ 4.17914651e-02 -4.99051809e-03]
 [ 3.37763764e-02  4.33558337e-02]
 [ 1.77478231e-02 -5.72694466e-03]
 [-4.40327413e-02  4.32752259e-02]
 [ 2.27278471e-03 -8.28623772e-03]
 [-3.49764228e-02 -4.40406799e-02]
 [-3.72338295e-02  2.55561508e-02]
 [ 3.59469391e-02  3.34892906e-02]
 [ 3.23048271e-02 -2.60143168e-02]
 [-5.34293801e-03  2.63441727e-03]
 [ 1.93508007e-02 -9.08057764e-03]
 [-2.58703362e-02  1.52591504e-02]
 [ 3.87800820e-02 -5.05181402e-03]
 [-2.33416688e-02 -5.34871966e-03]
 [-1.98104978e-02  3.77173349e-03]
 [ 1.98476054e-02 -1.75504573e-02]
 [ 4.55138721e-02  1.27838142e-02]
 [ 7.33032078e-03  3.07774879e-02]
 [ 1.86383389e-02  4.38697077e-02]
 [-2.16100700e-02 -2.42266301e-02]
 [-1.79527029e-02 -1.42248869e-02]
 [ 3.16516422e-02  2.58373655e-02]
 [ 1.57395266e-02 -6.40913099e-03]
 [-4.28416505e-02  4.75246422e-02]
 [ 4.65493239e-02 -4.79781888e-02]
 [-2.87588481e-02 -1.00543723e-02]
 [ 4.64504398e-02  1.16199963e-02]
 [ 1.91995762e-02 -3.07122115e-02]
 [ 1.04592219e-02 -2.32231617e-02]
 [-3.13440710e-02 -2.79270113e-04]
 [-2.28298306e-02  4.51388210e-03]
 [-4.27086242e-02  2.75768377e-02]
 [-2.91821845e-02  2.95299292e-03]
 [ 8.04433972e-03 -4.07980904e-02]
 [-5.56396320e-03 -4.02186140e-02]
 [-2.49749180e-02 -1.84170119e-02]
 [ 1.06688626e-02  2.05067433e-02]
 [ 1.50729530e-02  2.92629115e-02]
 [-4.38721292e-02 -3.97577658e-02]
 [ 3.24625410e-02 -2.63699051e-02]
 [ 1.39453523e-02  3.06650288e-02]
 [ 3.31072100e-02 -4.59612720e-02]
 [ 2.04507001e-02 -1.65798441e-02]
 [ 4.09306213e-03 -3.33526284e-02]
 [-2.94282921e-02 -2.62164008e-02]
 [ 1.89914592e-02 -4.89364043e-02]
 [-3.55090387e-02 -1.64902434e-02]
 [-5.83035871e-03  4.77641933e-02]
 [-7.39889219e-03 -3.14348228e-02]
 [-1.35314241e-02  3.74324247e-03]
 [ 1.85424127e-02  9.96289402e-03]
 [ 2.48677023e-02 -2.64452342e-02]
 [-9.85147804e-03 -2.78215054e-02]
 [-4.19939533e-02  1.13127343e-02]
 [-3.67483124e-02 -9.67776775e-03]
 [-2.47357842e-02  4.78950627e-02]
 [-1.29355416e-02 -4.16947603e-02]
 [ 3.09807397e-02  5.05558401e-03]
 [-2.24650148e-02 -2.48616226e-02]
 [ 2.96953581e-02  4.00249101e-02]
 [-1.33622289e-02  3.85278948e-02]
 [-1.70833841e-02 -4.37318459e-02]
 [-2.98908353e-02  4.53143977e-02]
 [-1.22950561e-02  6.99316338e-03]
 [-1.41418204e-02 -4.92022522e-02]
 [-7.43858889e-03  4.30786349e-02]
 [-3.26741822e-02 -4.70405333e-02]
 [-4.62081209e-02  2.82886662e-02]
 [-1.12410188e-02  3.55438702e-02]
 [-2.00019721e-02 -2.50665676e-02]
 [ 3.85686792e-02  2.47968100e-02]
 [-1.93507206e-02  3.03411745e-02]
 [ 1.98018216e-02 -7.86853954e-03]
 [-2.05875393e-02  3.32931615e-02]
 [-3.35084088e-02 -4.11315672e-02]
 [ 4.68806960e-02 -4.28322814e-02]
 [-3.12147290e-03 -9.03474167e-03]
 [ 4.71879169e-03 -4.69286367e-03]
 [ 4.89635393e-03  3.94137613e-02]
 [-4.88864258e-03 -4.93114851e-02]
 [-4.36078086e-02 -3.90976295e-02]
 [ 2.58237123e-03 -2.58588325e-02]
 [-2.04367042e-02 -3.98986116e-02]
 [-1.65380947e-02  1.72396190e-02]
 [ 7.12126493e-03  1.67926811e-02]
 [-3.62538472e-02  1.07678659e-02]
 [-3.49189639e-02 -1.11585036e-02]
 [-1.26961693e-02  4.85141315e-02]
 [ 2.24110223e-02 -1.91764906e-03]
 [ 3.64463963e-02  1.75759085e-02]
 [ 7.25399703e-04  4.96853329e-02]
 [ 3.02855633e-02 -2.34670043e-02]
 [-3.35551873e-02  2.11130828e-04]
 [ 3.80451120e-02  3.98254283e-02]
 [ 1.20471716e-02 -4.19214964e-02]
 [ 2.55137719e-02  2.11602114e-02]
 [ 2.96982042e-02 -4.20506112e-02]
 [ 4.22511138e-02  3.02625820e-03]
 [-1.22459419e-02  3.03422697e-02]
 [-3.68810818e-03 -3.24211717e-02]
 [-4.41301949e-02 -3.28398347e-02]
 [-4.10063043e-02 -2.81765312e-03]
 [ 3.01061906e-02 -1.43464208e-02]
 [ 6.42303377e-03  2.29287632e-02]
 [-4.33791429e-04 -1.32963769e-02]
 [-1.71746835e-02  4.58630361e-02]
 [-2.07168944e-02 -7.21585006e-04]
 [ 7.72421435e-03 -2.29796302e-02]
 [-3.74962687e-02 -2.77559832e-03]
 [ 3.12272049e-02  4.24088277e-02]
 [ 2.79979780e-03  2.09745504e-02]
 [-4.07775640e-02 -2.47369409e-02]
 [ 4.88482229e-02 -1.03681572e-02]
 [ 1.39211304e-02  2.42227577e-02]
 [ 4.79191206e-02 -3.89557108e-02]
 [ 4.30420674e-02 -2.08294746e-02]
 [-3.36622596e-02  1.00439563e-02]
 [-6.23329729e-03 -2.04437729e-02]
 [-2.11423524e-02  2.52221562e-02]
 [ 2.39045359e-02 -3.04080136e-02]
 [ 2.37431638e-02  4.09082510e-02]
 [-2.27839835e-02  1.49899237e-02]
 [ 2.04754509e-02  4.78166677e-02]
 [-4.76763025e-02 -1.72108524e-02]
 [-4.19570096e-02  1.60184018e-02]
 [ 4.28483635e-03 -3.92450914e-02]
 [ 3.97301801e-02  4.44285944e-03]
 [ 4.24320810e-02  1.28905214e-02]
 [-7.65949488e-03 -1.37938187e-03]
 [-2.77140867e-02 -1.17117167e-02]
 [ 2.08820738e-02 -4.85371351e-02]
 [ 1.23696700e-02  2.21152343e-02]
 [ 2.92318128e-02 -2.53485199e-02]
 [ 1.73162930e-02  1.09107122e-02]
 [-2.91458014e-02 -3.31371650e-02]
 [-1.23043545e-02 -6.34469092e-04]
 [-3.91848572e-02 -4.10372987e-02]
 [ 2.00367682e-02 -3.41443196e-02]
 [-2.29101181e-02  1.56803168e-02]
 [ 4.61530425e-02 -3.69788520e-02]
 [-3.18694264e-02 -2.17473861e-02]
 [ 4.15345281e-03 -4.97749448e-02]
 [ 3.07240151e-02 -2.57766247e-02]
 [-1.07275471e-02  4.62900884e-02]
 [ 3.28284837e-02 -4.67922352e-02]
 [ 1.91534050e-02 -1.76649205e-02]
 [-4.05089259e-02  6.78002834e-03]
 [ 1.38077624e-02 -3.88545506e-02]
 [-1.44297592e-02 -4.23547886e-02]
 [-3.22559625e-02 -2.89982799e-02]
 [-4.89080325e-02 -3.34582813e-02]
 [ 6.95740059e-03 -3.75404842e-02]
 [-3.37678567e-02  3.90614159e-02]
 [-4.02838103e-02  1.34173520e-02]
 [ 2.65659802e-02  2.37722658e-02]
 [-5.12120873e-03  2.99843214e-02]
 [-2.83610709e-02 -4.41035032e-02]
 [-6.48187473e-03  1.21004209e-02]
 [ 4.23205011e-02  3.09364237e-02]
 [-2.01941375e-02  3.81594896e-03]
 [-4.95350622e-02  1.34866871e-02]
 [ 1.44006647e-02  2.50964426e-02]
 [ 3.75466458e-02 -5.54393977e-04]
 [-2.15644725e-02 -3.43214422e-02]
 [ 3.23510207e-02  4.07016911e-02]
 [-1.61041021e-02  2.40260623e-02]
 [-1.21341720e-02  9.24349949e-03]
 [-6.93280622e-03 -4.90498915e-02]
 [-1.23287439e-02 -9.80722904e-03]
 [ 3.28453444e-02 -6.19740412e-03]
 [ 2.28760950e-02  1.09300762e-03]
 [ 4.49357517e-02 -1.16742030e-02]
 [-2.24003084e-02  1.50405802e-02]
 [-3.75277624e-02 -1.85767561e-03]
 [-3.31416279e-02  1.32072717e-04]
 [-9.67107713e-04  3.24566029e-02]
 [ 3.67241018e-02  4.67480160e-02]
 [ 1.94264315e-02 -4.16877382e-02]
 [-3.65650877e-02  3.16032432e-02]
 [ 8.34073871e-03  1.29667036e-02]
 [-4.65742722e-02  2.71962956e-03]
 [ 3.10092829e-02  2.98869126e-02]
 [ 3.95893492e-02 -4.22661304e-02]
 [ 2.19888426e-02  3.69740985e-02]
 [ 1.15916356e-02 -4.37439457e-02]
 [ 1.28426887e-02  4.98583205e-02]
 [ 1.12576485e-02 -4.94307987e-02]
 [-4.39812653e-02 -3.97632122e-02]
 [-6.32029772e-03  3.05609964e-02]
 [ 1.21045597e-02  2.62223594e-02]
 [-1.81194171e-02 -1.12240911e-02]
 [ 9.13915783e-03  3.09786946e-03]
 [-6.27337769e-03  2.92398669e-02]
 [-2.09465381e-02  4.79649343e-02]
 [-9.39708948e-03  3.80226411e-02]
 [ 2.84223594e-02  2.02452801e-02]
 [ 2.68217213e-02  2.82546543e-02]
 [ 4.40520085e-02  3.11877839e-02]
 [-1.87339187e-02 -2.73604635e-02]
 [-1.83023810e-02  2.13227756e-02]
 [ 1.87307037e-02 -2.64162663e-02]
 [ 1.83601715e-02  3.85926850e-02]
 [ 5.97190857e-03  3.92552949e-02]
 [ 7.22689554e-03  4.78280708e-03]
 [ 3.46365459e-02  1.01868734e-02]
 [ 5.86390495e-04  1.90105177e-02]
 [ 3.83072756e-02  4.62251343e-02]
 [-3.93297672e-02  1.40830763e-02]
 [ 2.47684009e-02  1.20154507e-02]
 [ 3.84695567e-02 -3.61071937e-02]
 [-1.48119926e-02  1.96588524e-02]
 [ 2.02053823e-02 -4.00588140e-02]
 [ 4.07563783e-02  2.88947709e-02]
 [ 1.62278302e-02 -8.09580088e-03]
 [ 1.30456425e-02  2.29237713e-02]
 [-1.73041336e-02 -5.71382046e-03]
 [ 2.60904916e-02 -2.64195800e-02]
 [ 1.10985041e-02  1.73374750e-02]
 [ 2.58229263e-02 -2.68161539e-02]
 [ 3.66631411e-02 -1.55353434e-02]
 [ 3.25706340e-02 -2.67705210e-02]
 [-3.54124308e-02  2.25203149e-02]
 [-6.38641417e-04  3.71707939e-02]
 [ 9.64956358e-03 -3.61117125e-02]
 [ 8.16700608e-03 -1.85559765e-02]
 [-3.46232764e-02  1.16549805e-03]
 [ 1.48940347e-02 -4.90946770e-02]
 [ 4.24349941e-02  3.72565910e-03]
 [-4.07116413e-02  1.55223645e-02]
 [-4.10497189e-04  3.03666256e-02]
 [-1.66285038e-03  2.86511667e-02]
 [-4.85890880e-02 -4.56376933e-02]
 [ 2.16440298e-02  3.97535004e-02]
 [-3.84579897e-02  4.41418029e-02]
 [ 8.59812647e-03 -7.59068877e-03]
 [-1.86080225e-02 -1.03027746e-03]
 [-1.65182240e-02 -3.57418172e-02]
 [ 2.72497423e-02 -3.79449837e-02]
 [ 2.86662616e-02  3.11860181e-02]
 [ 3.84344719e-02  3.53862531e-02]
 [ 1.15087517e-02 -5.87838888e-03]
 [ 4.07353528e-02 -2.83281934e-02]
 [-1.48538500e-03 -8.79213959e-03]
 [ 3.46738212e-02 -3.59245762e-02]
 [ 2.47894563e-02  1.29256584e-02]
 [-9.26780701e-03  1.72952674e-02]
 [-1.58176534e-02 -1.57633200e-02]
 [-1.04971305e-02 -9.88233089e-03]
 [ 2.80749835e-02  1.53864287e-02]
 [ 9.75587219e-03 -1.55963190e-02]
 [ 4.20795567e-02  4.85960506e-02]
 [ 3.58536094e-03  3.26474570e-02]
 [ 4.36749123e-02 -2.68518329e-02]
 [ 5.85411862e-03 -1.12215988e-02]
 [-3.72490883e-02 -3.05144191e-02]
 [ 8.87598842e-03 -4.98305447e-02]
 [ 1.52247883e-02 -3.97840030e-02]
 [-1.69525370e-02 -4.02939692e-02]
 [-2.38208659e-02 -4.46574353e-02]
 [ 2.67955326e-02  1.67421810e-02]
 [-8.97209719e-03  2.01216377e-02]
 [ 3.46592814e-03  2.68789567e-02]
 [ 4.53266241e-02 -3.06989439e-02]
 [-1.42010339e-02 -4.63954695e-02]
 [ 3.78330462e-02  2.94657834e-02]
 [-9.50832292e-03  4.32238020e-02]
 [ 4.37887423e-02 -3.80989797e-02]
 [-1.86862126e-02 -4.72761504e-02]
 [-2.23067049e-02 -4.85625118e-03]
 [ 1.49403103e-02 -2.98187863e-02]
 [-4.60482836e-02 -4.50108424e-02]
 [ 1.64154507e-02  2.71329023e-02]
 [-6.38482720e-03 -2.10632011e-03]
 [-7.60880858e-03 -2.63053775e-02]
 [-2.78101210e-02  7.98516348e-03]
 [-3.59206274e-03 -2.54244693e-02]
 [ 2.46454366e-02 -2.46838685e-02]
 [-3.61703411e-02 -1.73750632e-02]
 [-1.69472769e-03 -3.50840464e-02]
 [-3.42870727e-02  3.26806940e-02]
 [ 2.88556702e-02  8.73874500e-03]
 [ 3.36917080e-02  1.20216496e-02]
 [-2.70852577e-02  1.07365474e-02]
 [-1.46717653e-02 -3.51892598e-02]
 [ 3.36454250e-02  4.89800014e-02]
 [-3.47936042e-02 -1.59958377e-02]
 [-4.63534966e-02 -2.43405588e-02]
 [-3.12018525e-02  1.16627924e-02]
 [ 2.70606540e-02  3.32014076e-02]
 [-2.45539099e-03  3.79278995e-02]
 [ 2.48728134e-02  1.88192166e-02]
 [ 4.49119471e-02 -1.99378654e-03]
 [-1.88184623e-02  1.83880366e-02]
 [-1.14871487e-02 -4.36107069e-03]
 [-6.55848905e-03  1.23619661e-02]
 [ 5.81612438e-03  3.75755876e-03]
 [ 1.04478821e-02  4.18861546e-02]
 [-2.64140852e-02 -4.72129956e-02]
 [-1.77279823e-02 -9.49453190e-03]
 [ 4.32383530e-02 -1.05359331e-02]
 [-2.55691539e-02 -3.89582738e-02]
 [-4.11545038e-02  9.43186134e-03]
 [-3.91691104e-02  3.93246077e-02]
 [ 2.48707570e-02 -3.35995108e-02]
 [-4.90940474e-02  2.26336829e-02]
 [-4.86572273e-02  4.30296175e-02]
 [-1.85415857e-02 -8.82619619e-03]
 [ 2.81831063e-02 -2.58428808e-02]
 [-5.35358116e-03 -1.19266994e-02]
 [ 7.34061003e-03  3.96540873e-02]
 [ 3.71853262e-03  5.98762184e-03]
 [-4.13137302e-02  2.10972764e-02]
 [-2.39279270e-02 -3.16397101e-02]
 [ 8.03161785e-03 -2.44104024e-02]
 [ 4.54567932e-02  4.00867499e-02]
 [-3.97223607e-02  2.20851563e-02]
 [ 4.91106547e-02  1.37400739e-02]
 [ 2.99686305e-02 -4.12624367e-02]
 [ 2.76143663e-02 -1.05310194e-02]
 [-4.82369922e-02 -3.34943756e-02]
 [ 3.29480879e-02 -2.29183678e-02]
 [-1.23456866e-03 -2.03961488e-02]
 [-2.49553323e-02  1.30837597e-02]
 [ 4.40360419e-02 -3.31476107e-02]
 [-5.79344109e-03 -3.46221700e-02]
 [-2.74274834e-02 -4.09460664e-02]
 [ 2.52769142e-03  3.97172682e-02]
 [-2.62932852e-03 -2.54661441e-02]
 [-2.16690190e-02 -4.52668928e-02]
 [ 1.73701756e-02  4.25646417e-02]
 [-1.66125298e-02  3.07700075e-02]
 [ 4.54933904e-02 -6.53006136e-04]
 [ 2.77121998e-02  4.97257747e-02]
 [-1.23509020e-03  3.35659049e-02]
 [ 4.78019156e-02  9.90558416e-04]
 [ 4.26401831e-02  7.32638687e-03]
 [ 4.10572179e-02 -1.18796714e-02]
 [ 2.00746991e-02  6.68573380e-03]
 [ 3.13606523e-02  2.07468122e-03]
 [-1.25367567e-03  8.57830048e-04]
 [-3.15841287e-03 -2.24330071e-02]
 [ 4.99488451e-02  1.43940933e-02]
 [ 7.23656267e-03 -2.74804719e-02]
 [-3.07893995e-02 -8.25936720e-03]
 [ 4.29362692e-02 -1.21248886e-03]
 [-8.60420614e-03 -3.61671820e-02]
 [-1.25858895e-02 -5.19432873e-03]
 [ 1.68286897e-02  3.60629298e-02]
 [-1.08873248e-02  1.27664097e-02]
 [ 8.00323486e-03 -3.06113493e-02]
 [ 2.98166610e-02 -1.32649913e-02]
 [ 1.92619599e-02  1.26902722e-02]
 [ 1.32946260e-02  1.56501420e-02]
 [ 2.68675350e-02  2.09389441e-02]
 [ 4.48538773e-02 -4.43687327e-02]
 [-1.93575379e-02  1.03259310e-02]
 [-4.13604490e-02 -4.82862592e-02]
 [-2.24505737e-03 -4.86082323e-02]
 [-1.82166211e-02 -1.87667497e-02]
 [ 3.52841727e-02 -2.87751202e-02]
 [ 1.18765980e-03 -1.23512521e-02]
 [ 4.23744433e-02 -1.20826475e-02]
 [-4.51000109e-02 -3.23379412e-02]
 [ 1.46915056e-02 -4.45830114e-02]
 [-2.94630770e-02 -3.35725099e-02]
 [ 2.63638161e-02  4.65457700e-02]
 [-1.62828788e-02  1.68512948e-02]
 [ 2.19778530e-02  1.54412873e-02]
 [-4.33527343e-02  3.85131948e-02]
 [ 1.13427863e-02 -3.45353708e-02]
 [ 3.61780860e-02  1.10917687e-02]
 [-2.51361374e-02 -1.42510422e-02]
 [-1.88352913e-03  2.33215801e-02]
 [-2.47337222e-02 -3.65692601e-02]
 [ 3.24964635e-02 -4.23372388e-02]
 [-2.17127092e-02  4.49269451e-02]
 [-1.48987882e-02 -3.23614478e-02]
 [ 3.32782604e-02 -2.16420423e-02]
 [ 3.97907980e-02 -3.36910114e-02]
 [ 1.94123425e-02  8.15613195e-03]
 [ 4.04340886e-02  3.54755186e-02]
 [ 4.20788676e-03  3.15827243e-02]
 [-8.75622034e-03 -1.81774870e-02]
 [-3.42415795e-02 -2.23775860e-02]
 [ 3.99376787e-02 -1.81009062e-02]
 [ 4.89751808e-02  1.79437883e-02]
 [-3.63460891e-02  2.51250528e-02]
 [-4.19871211e-02  3.44796516e-02]
 [ 6.85911253e-03 -4.72498648e-02]
 [ 1.57861970e-02  1.71971433e-02]
 [-3.19336653e-02  1.99668072e-02]
 [-1.77698210e-03  2.64262296e-02]
 [ 1.04596727e-02  2.25945376e-02]
 [-5.94264269e-03 -9.39356163e-03]
 [-4.39633019e-02  3.61974500e-02]
 [-4.98581678e-04 -1.17526203e-03]
 [ 4.85963859e-02  4.05002274e-02]
 [ 2.09329836e-02  2.12260820e-02]
 [-4.85178493e-02  1.20943077e-02]
 [-3.92085426e-02  1.35418437e-02]
 [ 2.32617594e-02  4.18256558e-02]
 [ 4.62585203e-02 -1.70706026e-02]
 [-2.57156044e-03 -2.09747441e-02]
 [-2.84000281e-02  6.34365156e-03]
 [ 7.44085386e-03  2.65568532e-02]
 [ 1.70855038e-02 -1.18222348e-02]
 [-3.81260403e-02  1.63477175e-02]
 [-2.82299276e-02 -7.78555870e-03]
 [-2.17354652e-02 -2.14151982e-02]
 [-2.21534260e-02  4.20917198e-03]
 [ 2.39031650e-02  2.97142304e-02]
 [ 2.12096013e-02  3.50649990e-02]
 [ 2.44504698e-02 -1.12254731e-02]
 [ 3.15799005e-02  4.44342382e-02]
 [ 2.18987465e-04  3.83089855e-03]
 [ 4.01645787e-02  4.49290909e-02]
 [-3.78121063e-03 -3.48964110e-02]
 [ 2.25226395e-02  9.45783779e-03]
 [-1.33337602e-02  3.44620682e-02]
 [-1.10981613e-03 -2.50989329e-02]
 [-2.29191184e-02  1.59781314e-02]
 [-2.48019453e-02  2.39897892e-03]
 [ 9.20762867e-03 -4.03750055e-02]
 [ 9.22436640e-03  2.34421231e-02]
 [-1.18150711e-02 -2.63851639e-02]
 [-4.15775925e-03  7.25730509e-03]
 [ 9.22944397e-03  3.01996134e-02]
 [ 4.68730442e-02 -3.45688574e-02]
 [ 4.28676866e-02  2.92685144e-02]
 [ 4.92169000e-02  9.88099724e-03]
 [ 1.08768716e-02 -3.32578644e-02]
 [ 2.56595649e-02 -4.04310003e-02]
 [ 4.38302197e-02  1.54934265e-02]
 [ 5.18460199e-03  3.93167138e-05]
 [ 4.08600457e-02  4.87928726e-02]
 [-2.03669667e-02 -3.18315849e-02]
 [ 2.81753056e-02  2.81226076e-02]
 [ 3.73991579e-03  3.62537168e-02]
 [-1.95573568e-02  4.00274284e-02]
 [-2.88492329e-02  2.27012485e-03]
 [ 5.57795912e-03 -4.28165086e-02]
 [ 4.36558463e-02 -4.09408435e-02]
 [-2.63739470e-02 -2.59318203e-03]
 [-2.94803865e-02 -1.23967528e-02]
 [ 1.78798549e-02 -4.85153086e-02]
 [-4.54868786e-02  3.83069851e-02]
 [ 3.81630100e-02  4.63703535e-02]
 [ 4.79520820e-02 -1.74105652e-02]
 [-3.05327661e-02 -1.18610375e-02]
 [ 2.05406211e-02 -1.84022263e-03]
 [-3.70091423e-02  5.91930002e-03]
 [-4.46831472e-02  6.26034662e-03]
 [ 2.87219770e-02  1.38662793e-02]
 [ 4.47630621e-02  8.73555988e-03]
 [-3.06610949e-02 -8.98670405e-04]
 [ 3.77666838e-02  7.71546364e-03]
 [ 4.11509350e-03  4.37599905e-02]
 [ 1.64807551e-02 -4.31876257e-03]
 [-4.18512896e-03  4.67764772e-02]
 [-1.68911442e-02 -4.01647314e-02]
 [-3.78373377e-02 -1.81092024e-02]
 [ 1.19164474e-02  1.58427022e-02]
 [-4.00237665e-02 -1.68047324e-02]
 [-1.03970543e-02  2.68532149e-02]
 [-3.68787423e-02 -4.76330295e-02]
 [-2.08430421e-02  9.09541920e-03]
 [ 4.54947613e-02 -8.93928856e-03]
 [-2.47041471e-02  3.38738672e-02]
 [ 2.14473270e-02  2.48315446e-02]
 [-1.49188265e-02 -3.17089446e-02]
 [ 2.45630033e-02 -2.24279761e-02]
 [ 2.59075873e-02 -2.65825875e-02]
 [ 1.63129717e-03 -2.85247806e-02]
 [-3.91769893e-02 -1.06277950e-02]
 [-1.36483088e-02  9.53391939e-03]
 [-1.61056742e-02 -6.59259409e-03]
 [-2.33400706e-02  1.43269189e-02]
 [-4.58670370e-02 -2.73679625e-02]
 [ 2.33935378e-02  4.36186828e-02]
 [ 2.01357640e-02  3.53975557e-02]
 [ 4.01055254e-02 -2.87458897e-02]
 [ 4.92166318e-02  2.48053707e-02]
 [-3.17680836e-03 -2.42688414e-02]
 [ 4.74132411e-02 -3.67384031e-03]
 [ 3.94650809e-02 -5.18665463e-03]
 [-3.25710066e-02  8.04124027e-03]
 [-3.95055041e-02 -1.26513131e-02]
 [ 2.04849951e-02 -8.26898962e-03]
 [-2.03501470e-02 -8.21020454e-03]
 [-3.89473550e-02 -3.50543633e-02]
 [ 3.82554568e-02  3.88367437e-02]
 [-4.05094139e-02 -3.00461780e-02]
 [-3.53259668e-02  7.86043704e-04]
 [-1.99110154e-02  1.65251382e-02]
 [-3.68932970e-02  3.81734036e-02]
 [ 4.64162938e-02 -4.91312742e-02]
 [ 3.47369798e-02 -2.19763052e-02]
 [-3.67012732e-02  4.56784628e-02]
 [ 1.70301907e-02  1.77948363e-02]
 [ 3.92876156e-02  4.78002764e-02]
 [ 7.58920982e-03  9.26786661e-03]
 [-3.23432311e-02 -8.00962374e-03]
 [-5.60921431e-03 -3.56445089e-02]
 [-4.37240377e-02  3.01646329e-02]
 [ 2.45058797e-02  3.39997746e-02]
 [ 1.16145387e-02  3.01805399e-02]
 [ 3.64939906e-02  8.38870928e-03]
 [ 6.85717911e-03  1.63862221e-02]
 [-1.99693572e-02 -2.18429454e-02]
 [ 4.08875383e-02 -4.06765118e-02]
 [ 2.21455209e-02  1.24851465e-02]
 [ 4.09363620e-02 -1.97668076e-02]
 [ 3.10149901e-02 -1.93711519e-02]
 [-3.55613604e-02  4.87948991e-02]
 [ 1.11251362e-02 -2.70995498e-02]
 [ 3.67005579e-02  4.32284921e-03]
 [ 3.41933705e-02 -3.09242737e-02]
 [ 3.57235558e-02  2.98816450e-02]
 [ 4.46150564e-02 -3.18926945e-02]
 [-6.29995018e-03  4.61147688e-02]
 [-3.25902253e-02 -1.88885089e-02]
 [-3.82195227e-02  3.55875604e-02]
 [-2.67269500e-02 -2.14866400e-02]
 [ 1.89354755e-02  3.29747237e-02]
 [ 1.42761208e-02  4.44178097e-02]
 [ 2.02441327e-02  3.56090553e-02]
 [ 6.38514757e-03  5.19523770e-03]
 [ 2.44555362e-02  2.68010534e-02]
 [-1.35518238e-03 -4.19607535e-02]
 [-5.55108860e-03 -3.24332938e-02]
 [ 1.57911815e-02  4.60519083e-02]
 [-7.53258541e-03 -4.55795415e-02]
 [ 2.33472623e-02  9.96267796e-03]
 [-4.98166345e-02  9.42766666e-04]
 [ 3.27689759e-02  1.56644322e-02]
 [ 2.81996392e-02 -2.45386492e-02]
 [-2.17224285e-03  1.29448511e-02]
 [ 2.73704268e-02 -4.02734429e-03]
 [-4.53124531e-02 -4.80567217e-02]
 [-2.27962621e-02  4.30917181e-02]
 [-1.77790523e-02  2.51256563e-02]
 [-2.61664521e-02 -3.86670008e-02]
 [-2.78045982e-03  2.22206749e-02]
 [ 6.07516617e-03  4.14846055e-02]
 [-2.92493347e-02  1.15766302e-02]
 [ 3.47649939e-02  3.51297371e-02]
 [ 2.70110108e-02  3.75080146e-02]
 [ 1.28128193e-02 -1.89651251e-02]
 [-4.19834740e-02  1.73742436e-02]
 [ 4.34349813e-02  4.98981364e-02]
 [-1.85650475e-02  4.58218902e-03]
 [ 2.16604359e-02 -2.12288853e-02]
 [-4.82558981e-02  2.98159607e-02]
 [ 3.59414481e-02  1.71938650e-02]
 [ 1.50627978e-02 -4.65915799e-02]
 [-2.39005443e-02 -2.59970073e-02]
 [-4.57489006e-02  2.82242410e-02]
 [ 2.19493397e-02 -2.65346300e-02]
 [ 1.52547397e-02 -8.06863233e-03]
 [ 4.92587350e-02  4.01058532e-02]
 [ 1.72872581e-02 -4.41034324e-02]
 [ 1.87636130e-02 -4.29946296e-02]
 [ 2.72615999e-03  3.15464623e-02]
 [-3.94219980e-02 -1.48167014e-02]
 [ 2.38634236e-02  1.69396140e-02]
 [ 2.69877575e-02 -4.38991785e-02]
 [ 1.30128302e-02  2.23585032e-02]
 [ 1.37698986e-02  3.13158892e-02]
 [ 4.73124422e-02 -2.02875622e-02]
 [ 4.71742488e-02 -1.57008320e-03]
 [ 3.72365974e-02 -1.03753321e-02]
 [-8.78757238e-03  1.92376040e-02]
 [-4.65920083e-02  4.73553874e-02]
 [ 4.87694182e-02  4.13919799e-02]
 [ 2.57205218e-04  2.07118876e-02]
 [ 2.59140246e-02 -2.70709526e-02]
 [-4.70222235e-02  2.75592469e-02]
 [-9.35267657e-04 -3.12682539e-02]
 [ 3.15721668e-02  1.34624355e-02]
 [ 3.95934917e-02  1.44827254e-02]
 [ 2.24235319e-02  3.45186256e-02]
 [ 3.60975154e-02 -2.50932928e-02]
 [ 4.49557416e-02  1.92369558e-02]
 [ 4.92959879e-02 -3.48843932e-02]
 [ 3.25127952e-02  7.81405717e-04]
 [ 2.76707150e-02 -6.64893538e-03]
 [-1.34781487e-02 -4.80393320e-03]
 [ 2.58051418e-02 -8.75334814e-03]
 [-1.74023025e-02  2.66970880e-02]
 [ 6.10102341e-03  1.12299211e-02]
 [-1.26297362e-02  4.35861200e-03]
 [ 3.67879868e-04  3.10199335e-03]
 [-4.49742451e-02 -3.79578024e-03]
 [-4.48377244e-02 -2.77457386e-03]
 [ 4.29857112e-02 -4.70584892e-02]
 [ 2.19704397e-02  3.62735651e-02]
 [-1.28555894e-02  2.64793895e-02]
 [ 1.19334683e-02  2.52194144e-02]
 [ 1.27840899e-02 -6.05732203e-06]
 [ 2.81102695e-02 -4.08242941e-02]
 [-4.35521863e-02 -1.95424631e-03]
 [ 3.62082459e-02 -1.96616296e-02]
 [-4.40834835e-03  3.92306782e-02]
 [-2.44624503e-02  1.57092474e-02]
 [ 4.07192223e-02 -1.99483391e-02]
 [-2.67558228e-02 -2.29112394e-02]
 [ 4.73794825e-02  1.45887397e-02]
 [-4.46830280e-02 -9.19647142e-03]
 [-2.62599830e-02 -1.17839687e-02]
 [ 2.97826044e-02  1.77528970e-02]
 [-3.29663754e-02  1.22946985e-02]
 [-3.38132754e-02  1.62088610e-02]
 [-4.81516235e-02 -2.39739064e-02]
 [-2.98120622e-02 -4.75363620e-02]
 [ 1.44463293e-02 -4.66329977e-03]
 [ 1.21353976e-02 -2.60682106e-02]
 [-3.16226855e-02 -1.30012631e-06]
 [ 4.89394777e-02  3.82392518e-02]
 [ 1.06040016e-02 -3.75337228e-02]
 [ 3.60659249e-02 -3.38760503e-02]
 [ 3.26321013e-02 -2.51001474e-02]
 [ 2.03945674e-02  3.59898247e-02]
 [-3.88491377e-02 -3.41854580e-02]
 [ 1.29706599e-02  1.45516880e-02]
 [-4.15878296e-02  4.30404283e-02]
 [-3.89048941e-02 -1.88420415e-02]
 [ 3.22816409e-02 -3.83309014e-02]
 [ 3.18892710e-02  3.13736126e-03]
 [-3.48555557e-02 -1.07998736e-02]
 [-1.84045807e-02 -1.99674368e-02]
 [ 4.23733704e-02  1.53915025e-02]
 [ 8.78211111e-03 -4.19232734e-02]
 [ 4.42119278e-02  1.61759965e-02]
 [-3.32731009e-03 -3.35310325e-02]
 [ 5.32914326e-03  4.24514674e-02]
 [ 2.23334171e-02 -3.94496433e-02]
 [ 3.68758775e-02 -3.47985141e-02]
 [-1.97867304e-03  4.42480557e-02]
 [-3.24420221e-02 -3.95735390e-02]
 [-4.47749756e-02 -1.33091435e-02]
 [-2.59681232e-02  7.48489052e-03]
 [-3.68258245e-02 -2.84725185e-02]
 [-3.62768993e-02 -3.53526846e-02]
 [-1.02305301e-02  3.01756151e-02]
 [ 2.34080441e-02  2.38321908e-02]
 [ 4.34782617e-02  1.88957788e-02]
 [ 3.53618599e-02  2.41183899e-02]
 [-1.82434432e-02  4.53479551e-02]
 [-1.39634982e-02 -7.62953609e-03]
 [-1.24576688e-02 -3.42422128e-02]
 [-1.49635300e-02  9.30340216e-03]
 [ 3.49991210e-02 -3.01561952e-02]
 [ 7.94382021e-03 -3.08369156e-02]
 [-3.76166329e-02 -1.98845509e-02]
 [-4.03446332e-02 -1.97526067e-03]
 [-7.59682804e-03  2.88772471e-02]
 [-2.72693392e-02 -2.48953942e-02]
 [-1.88819170e-02  1.86885484e-02]
 [-8.17692280e-03 -2.40541827e-02]
 [-2.52030846e-02 -3.71683612e-02]
 [-4.02024873e-02  3.35094966e-02]
 [ 1.52842142e-02 -8.20902735e-03]
 [ 3.23305763e-02 -2.13190168e-03]
 [-2.32018959e-02  4.01732065e-02]
 [ 3.88258956e-02 -3.49191651e-02]
 [ 5.95730543e-03  3.98557261e-03]
 [-3.52958813e-02  3.48081626e-02]
 [-7.48813152e-04 -4.54930551e-02]
 [-4.90418561e-02 -4.31329273e-02]
 [ 1.97124220e-02 -4.08205390e-02]
 [-4.78540063e-02  2.70912535e-02]
 [ 4.16424610e-02  4.34110872e-02]
 [-4.57345359e-02 -2.36502290e-02]
 [ 2.35061087e-02 -5.88395447e-03]
 [-1.33258700e-02  1.76039375e-02]
 [ 2.62525715e-02 -2.46690754e-02]
 [ 3.91495936e-02 -2.97017228e-02]
 [-2.33613979e-02  2.51001120e-03]
 [ 3.63210477e-02  8.51559639e-03]
 [ 5.68100065e-03  3.93637680e-02]
 [-3.36886197e-02 -1.26351602e-02]
 [ 3.18105333e-02  6.76289946e-03]
 [-4.69393134e-02 -9.29944590e-03]
 [ 1.28871910e-02 -3.70855257e-03]
 [ 1.51031725e-02 -4.18781638e-02]
 [ 9.73671675e-03  4.45988514e-02]
 [ 3.63364480e-02 -1.62173733e-02]
 [ 1.64330341e-02 -4.82031815e-02]
 [-1.68990865e-02  2.29015984e-02]
 [ 1.09918714e-02 -1.95883755e-02]
 [-3.18380371e-02 -2.21462175e-03]
 [-1.76730379e-02 -4.11059149e-02]
 [-2.41459254e-02 -1.95354223e-02]
 [ 9.17483494e-03 -3.89254317e-02]
 [ 2.73429863e-02 -3.57155874e-03]
 [-2.02719569e-02 -2.52483021e-02]
 [ 2.25803517e-02 -4.45499904e-02]
 [-2.27714069e-02 -4.71811406e-02]
 [ 3.64254601e-02  7.61296600e-03]
 [-4.50438745e-02  1.62247680e-02]
 [-4.22327183e-02  3.47994640e-03]
 [-2.87154317e-02  4.10435684e-02]
 [ 2.16437839e-02  4.70281728e-02]
 [ 3.62136699e-02  4.20434140e-02]
 [ 4.45475094e-02  3.57682817e-02]
 [ 2.07002275e-02 -1.55968592e-03]
 [-3.86349782e-02  2.59383582e-02]
 [-3.38812694e-02 -2.35256683e-02]
 [ 3.42117883e-02 -2.66260989e-02]
 [-1.62409171e-02 -1.35066733e-02]
 [ 3.20840143e-02 -1.53855905e-02]
 [ 2.41856016e-02 -4.68043238e-03]]
